<?xml version="1.0"?>
<opencv_storage>
<cascade>
  <stageType>BOOST</stageType>
  <featureType>HAAR</featureType>
  <height>24</height>
  <width>36</width>
  <stageParams>
    <boostType>GAB</boostType>
    <minHitRate>9.9500000476837158e-01</minHitRate>
    <maxFalseAlarm>5.0000000000000000e-01</maxFalseAlarm>
    <weightTrimRate>9.4999998807907104e-01</weightTrimRate>
    <maxDepth>1</maxDepth>
    <maxWeakCount>100</maxWeakCount></stageParams>
  <featureParams>
    <maxCatCount>0</maxCatCount>
    <featSize>1</featSize>
    <mode>BASIC</mode></featureParams>
  <stageNum>9</stageNum>
  <stages>
    <!-- stage 0 -->
    <_>
      <maxWeakCount>3</maxWeakCount>
      <stageThreshold>-9.6431797742843628e-01</stageThreshold>
      <weakClassifiers>
        <_>
          <internalNodes>
            0 -1 21 -1.8732696771621704e-01</internalNodes>
          <leafValues>
            9.9565219879150391e-01 -8.3027523756027222e-01</leafValues></_>
        <_>
          <internalNodes>
            0 -1 26 -1.4967554248869419e-02</internalNodes>
          <leafValues>
            7.0970910787582397e-01 -8.8452160358428955e-01</leafValues></_>
        <_>
          <internalNodes>
            0 -1 12 3.0980955809354782e-02</internalNodes>
          <leafValues>
            -5.9432852268218994e-01 7.5047886371612549e-01</leafValues></_></weakClassifiers></_>
    <!-- stage 1 -->
    <_>
      <maxWeakCount>3</maxWeakCount>
      <stageThreshold>-9.5261484384536743e-01</stageThreshold>
      <weakClassifiers>
        <_>
          <internalNodes>
            0 -1 16 -2.6203233003616333e-01</internalNodes>
          <leafValues>
            9.8486489057540894e-01 -8.2962393760681152e-01</leafValues></_>
        <_>
          <internalNodes>
            0 -1 25 -1.0825455188751221e-02</internalNodes>
          <leafValues>
            7.3237204551696777e-01 -5.8205419778823853e-01</leafValues></_>
        <_>
          <internalNodes>
            0 -1 45 -3.3800871460698545e-04</internalNodes>
          <leafValues>
            4.5906326174736023e-01 -6.8462258577346802e-01</leafValues></_></weakClassifiers></_>
    <!-- stage 2 -->
    <_>
      <maxWeakCount>4</maxWeakCount>
      <stageThreshold>-1.5961045026779175e+00</stageThreshold>
      <weakClassifiers>
        <_>
          <internalNodes>
            0 -1 7 -2.0817404985427856e-01</internalNodes>
          <leafValues>
            9.5953142642974854e-01 -8.3087664842605591e-01</leafValues></_>
        <_>
          <internalNodes>
            0 -1 15 6.3369303941726685e-02</internalNodes>
          <leafValues>
            -5.6443303823471069e-01 6.9606566429138184e-01</leafValues></_>
        <_>
          <internalNodes>
            0 -1 27 -6.3852388411760330e-03</internalNodes>
          <leafValues>
            4.5256474614143372e-01 -8.4283196926116943e-01</leafValues></_>
        <_>
          <internalNodes>
            0 -1 31 -4.7236301004886627e-02</internalNodes>
          <leafValues>
            3.6112082004547119e-01 -6.5335959196090698e-01</leafValues></_></weakClassifiers></_>
    <!-- stage 3 -->
    <_>
      <maxWeakCount>7</maxWeakCount>
      <stageThreshold>-1.5403482913970947e+00</stageThreshold>
      <weakClassifiers>
        <_>
          <internalNodes>
            0 -1 38 -9.7456023097038269e-02</internalNodes>
          <leafValues>
            9.5913976430892944e-01 -8.1818181276321411e-01</leafValues></_>
        <_>
          <internalNodes>
            0 -1 14 6.1095476150512695e-02</internalNodes>
          <leafValues>
            -5.8276236057281494e-01 7.3708969354629517e-01</leafValues></_>
        <_>
          <internalNodes>
            0 -1 22 6.4495861530303955e-02</internalNodes>
          <leafValues>
            -2.8328838944435120e-01 8.4464615583419800e-01</leafValues></_>
        <_>
          <internalNodes>
            0 -1 33 -7.3614914435893297e-04</internalNodes>
          <leafValues>
            4.3119114637374878e-01 -6.1346328258514404e-01</leafValues></_>
        <_>
          <internalNodes>
            0 -1 4 2.0479294657707214e-01</internalNodes>
          <leafValues>
            -2.9983398318290710e-01 8.1636321544647217e-01</leafValues></_>
        <_>
          <internalNodes>
            0 -1 10 -5.3232431411743164e-02</internalNodes>
          <leafValues>
            8.0782133340835571e-01 -2.5859639048576355e-01</leafValues></_>
        <_>
          <internalNodes>
            0 -1 30 -3.2604747684672475e-04</internalNodes>
          <leafValues>
            2.7112346887588501e-01 -7.8113228082656860e-01</leafValues></_></weakClassifiers></_>
    <!-- stage 4 -->
    <_>
      <maxWeakCount>7</maxWeakCount>
      <stageThreshold>-1.7198401689529419e+00</stageThreshold>
      <weakClassifiers>
        <_>
          <internalNodes>
            0 -1 20 -2.0266626775264740e-01</internalNodes>
          <leafValues>
            9.6348011493682861e-01 -8.2266771793365479e-01</leafValues></_>
        <_>
          <internalNodes>
            0 -1 36 -9.8687656223773956e-02</internalNodes>
          <leafValues>
            8.7869399785995483e-01 -3.9073058962821960e-01</leafValues></_>
        <_>
          <internalNodes>
            0 -1 18 5.8179963380098343e-03</internalNodes>
          <leafValues>
            -6.2523359060287476e-01 4.6371826529502869e-01</leafValues></_>
        <_>
          <internalNodes>
            0 -1 3 1.7491999268531799e-01</internalNodes>
          <leafValues>
            -2.7646341919898987e-01 8.5520333051681519e-01</leafValues></_>
        <_>
          <internalNodes>
            0 -1 11 -1.0415745899081230e-02</internalNodes>
          <leafValues>
            5.4076313972473145e-01 -4.6305167675018311e-01</leafValues></_>
        <_>
          <internalNodes>
            0 -1 23 -5.5037476122379303e-02</internalNodes>
          <leafValues>
            5.2107548713684082e-01 -3.7332135438919067e-01</leafValues></_>
        <_>
          <internalNodes>
            0 -1 32 3.9489073678851128e-03</internalNodes>
          <leafValues>
            2.2781334817409515e-01 -7.9253518581390381e-01</leafValues></_></weakClassifiers></_>
    <!-- stage 5 -->
    <_>
      <maxWeakCount>5</maxWeakCount>
      <stageThreshold>-1.1493669748306274e+00</stageThreshold>
      <weakClassifiers>
        <_>
          <internalNodes>
            0 -1 2 -1.4771905541419983e-01</internalNodes>
          <leafValues>
            9.5918369293212891e-01 -8.1958365440368652e-01</leafValues></_>
        <_>
          <internalNodes>
            0 -1 39 -5.6855358183383942e-02</internalNodes>
          <leafValues>
            8.9535617828369141e-01 -3.7696239352226257e-01</leafValues></_>
        <_>
          <internalNodes>
            0 -1 37 -7.7055452857166529e-04</internalNodes>
          <leafValues>
            3.7818157672882080e-01 -7.6877951622009277e-01</leafValues></_>
        <_>
          <internalNodes>
            0 -1 29 1.6205745851038955e-05</internalNodes>
          <leafValues>
            2.4163666367530823e-01 -8.1731086969375610e-01</leafValues></_>
        <_>
          <internalNodes>
            0 -1 48 -1.1439454741775990e-02</internalNodes>
          <leafValues>
            5.7432198524475098e-01 -3.5862281918525696e-01</leafValues></_></weakClassifiers></_>
    <!-- stage 6 -->
    <_>
      <maxWeakCount>8</maxWeakCount>
      <stageThreshold>-1.2869641780853271e+00</stageThreshold>
      <weakClassifiers>
        <_>
          <internalNodes>
            0 -1 43 2.0050700753927231e-02</internalNodes>
          <leafValues>
            -8.1289309263229370e-01 9.0376567840576172e-01</leafValues></_>
        <_>
          <internalNodes>
            0 -1 8 9.3043744564056396e-02</internalNodes>
          <leafValues>
            -4.1621351242065430e-01 8.2900553941726685e-01</leafValues></_>
        <_>
          <internalNodes>
            0 -1 17 -1.3708282262086868e-02</internalNodes>
          <leafValues>
            3.7217092514038086e-01 -7.8184700012207031e-01</leafValues></_>
        <_>
          <internalNodes>
            0 -1 41 -9.0354715939611197e-04</internalNodes>
          <leafValues>
            2.9535603523254395e-01 -6.5614652633666992e-01</leafValues></_>
        <_>
          <internalNodes>
            0 -1 13 4.4935531914234161e-02</internalNodes>
          <leafValues>
            -4.1506931185722351e-01 5.0292319059371948e-01</leafValues></_>
        <_>
          <internalNodes>
            0 -1 46 -1.9924264051951468e-04</internalNodes>
          <leafValues>
            2.9581576585769653e-01 -5.8825343847274780e-01</leafValues></_>
        <_>
          <internalNodes>
            0 -1 5 1.8164649605751038e-01</internalNodes>
          <leafValues>
            -2.4531912803649902e-01 8.1832849979400635e-01</leafValues></_>
        <_>
          <internalNodes>
            0 -1 0 -2.0716437697410583e-01</internalNodes>
          <leafValues>
            7.9320603609085083e-01 -2.4039897322654724e-01</leafValues></_></weakClassifiers></_>
    <!-- stage 7 -->
    <_>
      <maxWeakCount>7</maxWeakCount>
      <stageThreshold>-1.7704058885574341e+00</stageThreshold>
      <weakClassifiers>
        <_>
          <internalNodes>
            0 -1 34 -1.1134892702102661e-01</internalNodes>
          <leafValues>
            8.6461538076400757e-01 -8.0845969915390015e-01</leafValues></_>
        <_>
          <internalNodes>
            0 -1 35 -1.8655331805348396e-02</internalNodes>
          <leafValues>
            5.4314094781875610e-01 -6.6697043180465698e-01</leafValues></_>
        <_>
          <internalNodes>
            0 -1 47 -1.6439042519778013e-03</internalNodes>
          <leafValues>
            3.9078572392463684e-01 -6.8420398235321045e-01</leafValues></_>
        <_>
          <internalNodes>
            0 -1 49 4.2621091008186340e-02</internalNodes>
          <leafValues>
            -2.7922710776329041e-01 8.4195673465728760e-01</leafValues></_>
        <_>
          <internalNodes>
            0 -1 28 5.2596037276089191e-03</internalNodes>
          <leafValues>
            -5.2653163671493530e-01 3.7907144427299500e-01</leafValues></_>
        <_>
          <internalNodes>
            0 -1 1 1.4980632066726685e-01</internalNodes>
          <leafValues>
            -3.5340985655784607e-01 6.6938513517379761e-01</leafValues></_>
        <_>
          <internalNodes>
            0 -1 44 -3.0280966893769801e-04</internalNodes>
          <leafValues>
            4.7340708971023560e-01 -4.1798681020736694e-01</leafValues></_></weakClassifiers></_>
    <!-- stage 8 -->
    <_>
      <maxWeakCount>6</maxWeakCount>
      <stageThreshold>-1.1317445039749146e+00</stageThreshold>
      <weakClassifiers>
        <_>
          <internalNodes>
            0 -1 9 -3.4441328048706055e-01</internalNodes>
          <leafValues>
            8.9386057853698730e-01 -8.1215471029281616e-01</leafValues></_>
        <_>
          <internalNodes>
            0 -1 42 -6.3662678003311157e-02</internalNodes>
          <leafValues>
            8.3462923765182495e-01 -4.1697576642036438e-01</leafValues></_>
        <_>
          <internalNodes>
            0 -1 24 -7.3381094262003899e-03</internalNodes>
          <leafValues>
            3.9758792519569397e-01 -5.7193237543106079e-01</leafValues></_>
        <_>
          <internalNodes>
            0 -1 19 3.2024210691452026e-01</internalNodes>
          <leafValues>
            -2.8223747014999390e-01 7.2259402275085449e-01</leafValues></_>
        <_>
          <internalNodes>
            0 -1 6 -6.2797218561172485e-02</internalNodes>
          <leafValues>
            7.6929533481597900e-01 -2.3314325511455536e-01</leafValues></_>
        <_>
          <internalNodes>
            0 -1 40 -2.9378791805356741e-04</internalNodes>
          <leafValues>
            2.3467352986335754e-01 -7.8725981712341309e-01</leafValues></_></weakClassifiers></_></stages>
  <features>
    <_>
      <rects>
        <_>
          0 0 36 15 -1.</_>
        <_>
          12 0 12 15 3.</_></rects>
      <tilted>0</tilted></_>
    <_>
      <rects>
        <_>
          0 4 26 14 -1.</_>
        <_>
          13 4 13 14 2.</_></rects>
      <tilted>0</tilted></_>
    <_>
      <rects>
        <_>
          0 4 28 6 -1.</_>
        <_>
          14 4 14 6 2.</_></rects>
      <tilted>0</tilted></_>
    <_>
      <rects>
        <_>
          0 7 36 5 -1.</_>
        <_>
          12 7 12 5 3.</_></rects>
      <tilted>0</tilted></_>
    <_>
      <rects>
        <_>
          0 7 36 7 -1.</_>
        <_>
          12 7 12 7 3.</_></rects>
      <tilted>0</tilted></_>
    <_>
      <rects>
        <_>
          0 8 36 4 -1.</_>
        <_>
          12 8 12 4 3.</_></rects>
      <tilted>0</tilted></_>
    <_>
      <rects>
        <_>
          1 0 32 6 -1.</_>
        <_>
          1 0 16 3 2.</_>
        <_>
          17 3 16 3 2.</_></rects>
      <tilted>0</tilted></_>
    <_>
      <rects>
        <_>
          1 7 24 11 -1.</_>
        <_>
          13 7 12 11 2.</_></rects>
      <tilted>0</tilted></_>
    <_>
      <rects>
        <_>
          2 15 24 6 -1.</_>
        <_>
          2 18 24 3 2.</_></rects>
      <tilted>0</tilted></_>
    <_>
      <rects>
        <_>
          3 3 24 16 -1.</_>
        <_>
          15 3 12 16 2.</_></rects>
      <tilted>0</tilted></_>
    <_>
      <rects>
        <_>
          3 15 33 2 -1.</_>
        <_>
          14 15 11 2 3.</_></rects>
      <tilted>0</tilted></_>
    <_>
      <rects>
        <_>
          4 6 16 6 -1.</_>
        <_>
          4 6 8 3 2.</_>
        <_>
          12 9 8 3 2.</_></rects>
      <tilted>0</tilted></_>
    <_>
      <rects>
        <_>
          4 10 18 5 -1.</_>
        <_>
          10 10 6 5 3.</_></rects>
      <tilted>0</tilted></_>
    <_>
      <rects>
        <_>
          5 8 15 6 -1.</_>
        <_>
          10 8 5 6 3.</_></rects>
      <tilted>0</tilted></_>
    <_>
      <rects>
        <_>
          6 6 15 11 -1.</_>
        <_>
          11 6 5 11 3.</_></rects>
      <tilted>0</tilted></_>
    <_>
      <rects>
        <_>
          6 6 15 12 -1.</_>
        <_>
          11 6 5 12 3.</_></rects>
      <tilted>0</tilted></_>
    <_>
      <rects>
        <_>
          6 7 30 10 -1.</_>
        <_>
          16 7 10 10 3.</_></rects>
      <tilted>0</tilted></_>
    <_>
      <rects>
        <_>
          6 11 23 4 -1.</_>
        <_>
          6 13 23 2 2.</_></rects>
      <tilted>0</tilted></_>
    <_>
      <rects>
        <_>
          7 0 8 12 -1.</_>
        <_>
          7 0 4 6 2.</_>
        <_>
          11 6 4 6 2.</_></rects>
      <tilted>0</tilted></_>
    <_>
      <rects>
        <_>
          7 0 18 21 -1.</_>
        <_>
          7 7 18 7 3.</_></rects>
      <tilted>0</tilted></_>
    <_>
      <rects>
        <_>
          7 4 27 9 -1.</_>
        <_>
          16 4 9 9 3.</_></rects>
      <tilted>0</tilted></_>
    <_>
      <rects>
        <_>
          8 9 27 8 -1.</_>
        <_>
          17 9 9 8 3.</_></rects>
      <tilted>0</tilted></_>
    <_>
      <rects>
        <_>
          9 15 16 6 -1.</_>
        <_>
          9 18 16 3 2.</_></rects>
      <tilted>0</tilted></_>
    <_>
      <rects>
        <_>
          10 0 22 12 -1.</_>
        <_>
          10 4 22 4 3.</_></rects>
      <tilted>0</tilted></_>
    <_>
      <rects>
        <_>
          10 4 6 16 -1.</_>
        <_>
          10 4 3 8 2.</_>
        <_>
          13 12 3 8 2.</_></rects>
      <tilted>0</tilted></_>
    <_>
      <rects>
        <_>
          10 5 8 8 -1.</_>
        <_>
          10 5 4 4 2.</_>
        <_>
          14 9 4 4 2.</_></rects>
      <tilted>0</tilted></_>
    <_>
      <rects>
        <_>
          11 8 6 10 -1.</_>
        <_>
          11 13 6 5 2.</_></rects>
      <tilted>0</tilted></_>
    <_>
      <rects>
        <_>
          11 12 16 4 -1.</_>
        <_>
          11 14 16 2 2.</_></rects>
      <tilted>0</tilted></_>
    <_>
      <rects>
        <_>
          13 7 18 6 -1.</_>
        <_>
          13 7 9 3 2.</_>
        <_>
          22 10 9 3 2.</_></rects>
      <tilted>0</tilted></_>
    <_>
      <rects>
        <_>
          13 13 6 1 -1.</_>
        <_>
          16 13 3 1 2.</_></rects>
      <tilted>0</tilted></_>
    <_>
      <rects>
        <_>
          14 11 1 4 -1.</_>
        <_>
          14 13 1 2 2.</_></rects>
      <tilted>0</tilted></_>
    <_>
      <rects>
        <_>
          15 8 8 15 -1.</_>
        <_>
          15 13 8 5 3.</_></rects>
      <tilted>0</tilted></_>
    <_>
      <rects>
        <_>
          15 9 3 6 -1.</_>
        <_>
          15 11 3 2 3.</_></rects>
      <tilted>0</tilted></_>
    <_>
      <rects>
        <_>
          15 10 7 2 -1.</_>
        <_>
          15 11 7 1 2.</_></rects>
      <tilted>0</tilted></_>
    <_>
      <rects>
        <_>
          16 0 9 21 -1.</_>
        <_>
          16 7 9 7 3.</_></rects>
      <tilted>0</tilted></_>
    <_>
      <rects>
        <_>
          16 0 12 9 -1.</_>
        <_>
          16 3 12 3 3.</_></rects>
      <tilted>0</tilted></_>
    <_>
      <rects>
        <_>
          16 1 8 21 -1.</_>
        <_>
          16 8 8 7 3.</_></rects>
      <tilted>0</tilted></_>
    <_>
      <rects>
        <_>
          16 12 2 4 -1.</_>
        <_>
          16 14 2 2 2.</_></rects>
      <tilted>0</tilted></_>
    <_>
      <rects>
        <_>
          17 0 7 21 -1.</_>
        <_>
          17 7 7 7 3.</_></rects>
      <tilted>0</tilted></_>
    <_>
      <rects>
        <_>
          17 0 16 6 -1.</_>
        <_>
          17 3 16 3 2.</_></rects>
      <tilted>0</tilted></_>
    <_>
      <rects>
        <_>
          17 11 12 2 -1.</_>
        <_>
          17 12 12 1 2.</_></rects>
      <tilted>0</tilted></_>
    <_>
      <rects>
        <_>
          17 13 2 4 -1.</_>
        <_>
          17 15 2 2 2.</_></rects>
      <tilted>0</tilted></_>
    <_>
      <rects>
        <_>
          17 14 18 8 -1.</_>
        <_>
          17 14 9 4 2.</_>
        <_>
          26 18 9 4 2.</_></rects>
      <tilted>0</tilted></_>
    <_>
      <rects>
        <_>
          18 5 4 16 -1.</_>
        <_>
          18 13 4 8 2.</_></rects>
      <tilted>0</tilted></_>
    <_>
      <rects>
        <_>
          18 6 3 2 -1.</_>
        <_>
          18 7 3 1 2.</_></rects>
      <tilted>0</tilted></_>
    <_>
      <rects>
        <_>
          20 11 3 2 -1.</_>
        <_>
          20 12 3 1 2.</_></rects>
      <tilted>0</tilted></_>
    <_>
      <rects>
        <_>
          21 10 3 2 -1.</_>
        <_>
          21 11 3 1 2.</_></rects>
      <tilted>0</tilted></_>
    <_>
      <rects>
        <_>
          21 13 3 4 -1.</_>
        <_>
          21 15 3 2 2.</_></rects>
      <tilted>0</tilted></_>
    <_>
      <rects>
        <_>
          22 6 9 5 -1.</_>
        <_>
          25 6 3 5 3.</_></rects>
      <tilted>0</tilted></_>
    <_>
      <rects>
        <_>
          25 7 9 10 -1.</_>
        <_>
          28 7 3 10 3.</_></rects>
      <tilted>0</tilted></_></features></cascade>
</opencv_storage>
